Language model created by QuickLM on Tue Nov  6 04:50:56 EST 2018
Copyright (c) 1996-2010 Carnegie Mellon University and Alexander I. Rudnicky

The model is in standard ARPA format, designed by Doug Paul while he was at MITRE.

The code that was used to produce this language model is available in Open Source.
Please visit http://www.speech.cs.cmu.edu/tools/ for more information

The (fixed) discount mass is 0.5. The backoffs are computed using the ratio method.
This model based on a corpus of 49 sentences and 60 words

\data\
ngram 1=60
ngram 2=112
ngram 3=119

\1-grams:
-1.0225 </s> -0.3010
-1.0225 <s> -0.2521
-2.7126 A -0.2993
-2.7126 AFTERNOON -0.2577
-2.4116 ANGRY -0.2577
-2.7126 ARE -0.2951
-2.7126 ARM -0.2577
-2.1106 ARMS -0.2577
-2.7126 BACKWARD -0.2577
-1.5085 BAXTER -0.2338
-1.9345 BE -0.2960
-2.7126 BIG -0.3002
-2.7126 BUMP -0.2577
-2.7126 CAN -0.2951
-2.7126 COME -0.3002
-1.9345 DO -0.2511
-2.7126 DOING -0.2577
-2.7126 EVENING -0.2577
-2.7126 FIST -0.3002
-2.7126 FIVE -0.2577
-2.7126 FORWARD -0.2577
-2.7126 GOING -0.2577
-2.1106 GOOD -0.2977
-2.7126 GOOD'AY -0.2577
-2.4116 HANDS -0.2577
-2.4116 HAPPY -0.2577
-2.7126 HAVE -0.3002
-2.4116 HELLO -0.2759
-2.7126 HERE -0.2577
-1.3147 HEY -0.2759
-2.4116 HI -0.2759
-2.7126 HIGH -0.3002
-2.2355 HOW -0.2942
-2.7126 IS -0.3002
-2.7126 KIND -0.2993
-2.4116 LEFT -0.2568
-2.7126 LISTENING -0.2577
-2.1106 ME -0.2577
-2.4116 MIMIC -0.2977
-2.4116 MIMICKING -0.2977
-2.4116 MIRROR -0.2977
-2.7126 MORNING -0.2577
-2.2355 MOVE -0.2977
-2.4116 NAME -0.2577
-2.7126 NIGHT -0.2577
-2.4116 OF -0.2993
-1.5987 RED -0.2367
-2.7126 RIGHT -0.2577
-2.1106 ROTATE -0.2549
-2.1106 ROTATING -0.2549
-2.4116 SHAKE -0.2993
-2.4116 SMILE -0.2577
-2.7126 SORT -0.2993
-2.7126 STOP -0.3002
-2.4116 THINGS -0.2951
-2.4116 TUCK -0.2977
-2.4116 UNTUCK -0.2977
-2.4116 UPSET -0.2577
-2.7126 WAVE -0.2577
-2.1106 WHAT -0.2934
-1.8676 YOU -0.2492
-2.7126 YOUR -0.2993

\2-grams:
-1.9912 <s> BIG 0.0000
-1.9912 <s> COME 0.0000
-1.9912 <s> DO -0.1761
-1.9912 <s> FIST 0.0000
-1.3892 <s> GOOD 0.0000
-1.9912 <s> GOOD'AY 0.0000
-1.6902 <s> HELLO 0.0000
-0.5933 <s> HEY 0.0000
-1.6902 <s> HI 0.0000
-1.9912 <s> HIGH 0.0000
-1.5141 <s> HOW 0.0000
-1.6902 <s> MOVE -0.1249
-1.9912 <s> STOP 0.0000
-1.3892 <s> WHAT 0.0000
-0.3010 A NAME 0.0000
-0.3010 AFTERNOON </s> -0.3010
-0.3010 ANGRY </s> -0.3010
-0.3010 ARE YOU -0.2688
-0.3010 ARM </s> -0.3010
-0.3010 ARMS </s> -0.3010
-0.3010 BACKWARD </s> -0.3010
-1.0280 BAXTER </s> -0.3010
-1.0280 BAXTER BE 0.0000
-1.5051 BAXTER MIMIC 0.0000
-1.5051 BAXTER MIRROR 0.0000
-1.5051 BAXTER MOVE -0.2218
-1.0280 BAXTER ROTATE 0.0000
-1.5051 BAXTER SHAKE 0.0000
-1.5051 BAXTER SMILE 0.0000
-1.5051 BAXTER TUCK 0.0000
-1.5051 BAXTER UNTUCK 0.0000
-0.7782 BE ANGRY 0.0000
-0.7782 BE HAPPY 0.0000
-0.7782 BE UPSET 0.0000
-0.3010 BIG WAVE 0.0000
-0.3010 BUMP </s> -0.3010
-0.3010 CAN YOU -0.1963
-0.3010 COME HERE 0.0000
-0.6021 DO </s> -0.3010
-0.6021 DO YOU -0.1549
-0.3010 DOING </s> -0.3010
-0.3010 EVENING </s> -0.3010
-0.3010 FIST BUMP 0.0000
-0.3010 FIVE </s> -0.3010
-0.3010 FORWARD </s> -0.3010
-0.3010 GOING </s> -0.3010
-0.9031 GOOD AFTERNOON 0.0000
-0.9031 GOOD EVENING 0.0000
-0.9031 GOOD MORNING 0.0000
-0.9031 GOOD NIGHT 0.0000
-0.3010 GOOD'AY </s> -0.3010
-0.3010 HANDS </s> -0.3010
-0.3010 HAPPY </s> -0.3010
-0.3010 HAVE A 0.0000
-0.6021 HELLO BAXTER -0.2583
-0.6021 HELLO RED -0.2478
-0.3010 HERE </s> -0.3010
-0.5528 HEY BAXTER 0.0000
-0.6576 HEY RED -0.0000
-0.6021 HI BAXTER -0.2583
-0.6021 HI RED -0.2478
-0.3010 HIGH FIVE 0.0000
-0.7782 HOW ARE 0.0000
-0.4771 HOW YOU -0.2341
-0.3010 IS YOUR 0.0000
-0.3010 KIND OF 0.0000
-0.6021 LEFT </s> -0.3010
-0.6021 LEFT ARM 0.0000
-0.3010 LISTENING </s> -0.3010
-0.3010 ME </s> -0.3010
-0.3010 MIMIC ME 0.0000
-0.3010 MIRROR ME 0.0000
-0.3010 MORNING </s> -0.3010
-0.7782 MOVE BACKWARD 0.0000
-0.7782 MOVE FORWARD 0.0000
-0.7782 MOVE LEFT -0.1761
-0.3010 NAME </s> -0.3010
-0.3010 NIGHT </s> -0.3010
-0.3010 OF THINGS 0.0000
-0.9379 RED </s> -0.3010
-0.9379 RED BE 0.0000
-1.4150 RED MIMIC 0.0000
-1.4150 RED MIRROR 0.0000
-1.4150 RED ROTATE -0.1761
-1.4150 RED SHAKE 0.0000
-1.4150 RED SMILE 0.0000
-1.4150 RED TUCK 0.0000
-1.4150 RED UNTUCK 0.0000
-0.3010 RIGHT </s> -0.3010
-0.6021 ROTATE </s> -0.3010
-0.9031 ROTATE LEFT -0.1761
-0.9031 ROTATE RIGHT 0.0000
-0.3010 SHAKE HANDS 0.0000
-0.3010 SMILE </s> -0.3010
-0.3010 SORT OF 0.0000
-0.3010 STOP LISTENING 0.0000
-0.3010 STOP MIMICKING 0.0000
-0.3010 STOP ROTATING 0.0000
-0.6021 THINGS CAN 0.0000
-0.6021 THINGS DO -0.1761
-0.3010 TUCK ARMS 0.0000
-0.3010 UNTUCK ARMS 0.0000
-0.3010 UPSET </s> -0.3010
-0.3010 WAVE </s> -0.3010
-0.9031 WHAT DO -0.1761
-0.9031 WHAT IS 0.0000
-0.9031 WHAT KIND 0.0000
-0.9031 WHAT SORT 0.0000
-1.1461 YOU </s> -0.3010
-0.6690 YOU DO -0.1761
-1.1461 YOU DOING 0.0000
-1.1461 YOU GOING 0.0000
-1.1461 YOU HAVE 0.0000
-0.3010 YOUR NAME 0.0000

\3-grams:
-0.3010 <s> BIG WAVE
-0.3010 <s> COME HERE
-0.3010 <s> DO YOU
-0.3010 <s> FIST BUMP
-0.9031 <s> GOOD AFTERNOON
-0.9031 <s> GOOD EVENING
-0.9031 <s> GOOD MORNING
-0.9031 <s> GOOD NIGHT
-0.3010 <s> GOOD'AY </s>
-0.6021 <s> HELLO BAXTER
-0.6021 <s> HELLO RED
-0.5528 <s> HEY BAXTER
-0.6576 <s> HEY RED
-0.6021 <s> HI BAXTER
-0.6021 <s> HI RED
-0.3010 <s> HIGH FIVE
-0.7782 <s> HOW ARE
-0.4771 <s> HOW YOU
-0.6021 <s> MOVE BACKWARD
-0.6021 <s> MOVE FORWARD
-0.3010 <s> STOP LISTENING
-0.9031 <s> WHAT DO
-0.9031 <s> WHAT IS
-0.9031 <s> WHAT KIND
-0.9031 <s> WHAT SORT
-0.3010 A NAME </s>
-0.3010 ARE YOU </s>
-0.7782 BAXTER BE ANGRY
-0.7782 BAXTER BE HAPPY
-0.7782 BAXTER BE UPSET
-0.3010 BAXTER MIMIC ME
-0.3010 BAXTER MIRROR ME
-0.3010 BAXTER MOVE LEFT
-0.7782 BAXTER ROTATE </s>
-0.7782 BAXTER ROTATE LEFT
-0.7782 BAXTER ROTATE RIGHT
-0.3010 BAXTER SHAKE HANDS
-0.3010 BAXTER SMILE </s>
-0.3010 BAXTER TUCK ARMS
-0.3010 BAXTER UNTUCK ARMS
-0.3010 BE ANGRY </s>
-0.3010 BE HAPPY </s>
-0.3010 BE UPSET </s>
-0.3010 BIG WAVE </s>
-0.3010 CAN YOU DO
-0.3010 COME HERE </s>
-0.4771 DO YOU DO
-0.7782 DO YOU HAVE
-0.3010 FIST BUMP </s>
-0.3010 GOOD AFTERNOON </s>
-0.3010 GOOD EVENING </s>
-0.3010 GOOD MORNING </s>
-0.3010 GOOD NIGHT </s>
-0.3010 HAVE A NAME
-0.3010 HELLO BAXTER </s>
-0.3010 HELLO RED </s>
-1.4472 HEY BAXTER </s>
-0.9700 HEY BAXTER BE
-1.4472 HEY BAXTER MIMIC
-1.4472 HEY BAXTER MIRROR
-1.4472 HEY BAXTER MOVE
-0.9700 HEY BAXTER ROTATE
-1.4472 HEY BAXTER SHAKE
-1.4472 HEY BAXTER SMILE
-1.4472 HEY BAXTER TUCK
-1.4472 HEY BAXTER UNTUCK
-1.3424 HEY RED </s>
-0.8653 HEY RED BE
-1.3424 HEY RED MIMIC
-1.3424 HEY RED MIRROR
-1.3424 HEY RED ROTATE
-1.3424 HEY RED SHAKE
-1.3424 HEY RED SMILE
-1.3424 HEY RED TUCK
-1.3424 HEY RED UNTUCK
-0.3010 HI BAXTER </s>
-0.3010 HI RED </s>
-0.3010 HIGH FIVE </s>
-0.3010 HOW ARE YOU
-0.6021 HOW YOU DOING
-0.6021 HOW YOU GOING
-0.3010 IS YOUR NAME
-0.3010 KIND OF THINGS
-0.3010 LEFT ARM </s>
-0.3010 MIMIC ME </s>
-0.3010 MIRROR ME </s>
-0.3010 MOVE BACKWARD </s>
-0.3010 MOVE FORWARD </s>
-0.3010 MOVE LEFT ARM
-0.6021 OF THINGS CAN
-0.6021 OF THINGS DO
-0.7782 RED BE ANGRY
-0.7782 RED BE HAPPY
-0.7782 RED BE UPSET
-0.3010 RED MIMIC ME
-0.3010 RED MIRROR ME
-0.3010 RED ROTATE </s>
-0.3010 RED SHAKE HANDS
-0.3010 RED SMILE </s>
-0.3010 RED TUCK ARMS
-0.3010 RED UNTUCK ARMS
-0.3010 ROTATE LEFT </s>
-0.3010 ROTATE RIGHT </s>
-0.3010 SHAKE HANDS </s>
-0.3010 SORT OF THINGS
-0.3010 STOP LISTENING </s>
-0.3010 THINGS CAN YOU
-0.3010 THINGS DO YOU
-0.3010 TUCK ARMS </s>
-0.3010 UNTUCK ARMS </s>
-0.3010 WHAT DO YOU
-0.3010 WHAT IS YOUR
-0.3010 WHAT KIND OF
-0.3010 WHAT SORT OF
-0.3010 YOU DO </s>
-0.3010 YOU DOING </s>
-0.3010 YOU GOING </s>
-0.3010 YOU HAVE A
-0.3010 YOUR NAME </s>

\end\
